tree
version=v3
num_class=1
num_tree_per_iteration=1
label_index=0
max_feature_idx=6
objective=regression
feature_names=distance is_express is_superexpress is_bus is_airplane transfer_times pass_stations
feature_infos=[19:2207.199951171875] [0:1] [0:1] [0:1] [0:1] [0:6] [0:88]
tree_sizes=1762 1788 1866 1789 1705 1632 1715 1781 1863 1789 1797 1804 1719 1814 1733 1794 1811 1820 1734 1890 1818 1737 1905 1665 1824 1904 1825 1909 1762 1757 1842 1769 1775 2013

Tree=0
num_leaves=21
num_cat=0
split_feature=0 0 0 0 0 0 6 6 6 6 6 0 0 0 0 0 0 0 0 6
split_gain=3.15917e+06 451042 446688 127155 102529 56678.2 46409.9 42826.7 37845.2 25197.7 23025.1 22298 18246.4 8976.22 6028.63 5257.17 5137.84 3740.45 1698.19 1695.47
threshold=458.29998779296881 134.55000305175784 964.00000000000011 580.45001220703136 1222.7500000000002 52.799999237060554 24.500000000000004 14.500000000000002 19.500000000000004 12.500000000000002 9.5000000000000018 296.15000915527349 798.34997558593761 86.050003051757827 311.25000000000006 404.40000915527349 637.90002441406261 1093.350036621094 37.050001144409187 28.500000000000004
decision_type=2 2 2 2 2 2 2 2 2 2 2 2 2 2 2 2 2 2 2 2
left_child=1 5 3 9 8 18 10 11 17 -2 -5 -3 16 -7 -9 -13 -12 -4 -1 -10
right_child=2 7 4 6 -6 13 -8 14 19 -11 12 15 -14 -15 -16 -17 -18 -19 -20 -21
leaf_value=198.94948069568701 213.89178835803955 207.39734394355025 222.63762171735439 216.72178836319358 233.39178823540681 202.62141801762434 224.06237662328883 211.89178837130541 226.91178838322634 217.64633381739446 218.25678838084215 209.85355308335858 223.02512171451608 205.03345505201227 214.26570141177751 211.8967883620015 220.44831012712515 224.42222316853019 200.10378838799471 228.15845505068773
leaf_weight=26 39 36 24 20 20 27 34 20 20 33 20 34 21 36 23 20 23 23 25 24
leaf_count=26 39 36 24 20 20 27 34 20 20 33 20 34 21 36 23 20 23 23 25 24
internal_value=214.991 206.609 221.869 218.924 226.909 201.994 220.945 210.565 225.484 215.613 219.683 209.325 220.609 204 213.162 210.61 219.429 223.511 199.515 227.592
internal_weight=0 247 301 190 111 114 118 133 91 72 84 90 64 63 43 54 43 47 51 44
internal_count=548 247 301 190 111 114 118 133 91 72 84 90 64 63 43 54 43 47 51 44
is_linear=0
shrinkage=1


Tree=1
num_leaves=21
num_cat=0
split_feature=0 0 0 0 6 6 0 0 6 0 5 6 0 0 0 0 0 0 0 6
split_gain=2.55893e+06 365344 362169 103858 95335.2 48472.3 45909.3 43985.2 34689.6 18061.3 15632.8 14890.1 10225.3 9684.77 8276.99 7270.74 4883.19 4258.31 1375.53 1139.16
threshold=458.29998779296881 134.55000305175784 830.39999389648449 1222.7500000000002 24.500000000000004 16.500000000000004 52.799999237060554 590.15002441406261 14.500000000000002 296.15000915527349 4.5000000000000009 11.500000000000002 512.80001831054699 567.85000610351574 1012.5000000000001 86.050003051757827 311.25000000000006 404.40000915527349 37.050001144409187 23.500000000000004
decision_type=2 2 2 2 2 2 2 2 2 2 2 2 2 2 2 2 2 2 2 2
left_child=1 6 4 5 7 14 18 12 9 -3 19 -9 -2 -14 -4 -8 -10 -11 -1 -7
right_child=2 8 3 -5 -6 10 15 11 16 17 -12 -13 13 -15 -16 -17 -18 -19 -20 -21
leaf_value=-14.4372555072491 2.0156393349170685 -6.8341789404551196 5.241279503015372 16.560821533203125 7.7225387862234403 8.8408001017570506 -11.132512368096247 1.8507114713842219 -2.7891787338256839 -4.6235906587804072 12.537378799438478 5.2302662909030921 -1.7330993231385947 1.0306458405085974 7.7410820607785826 -8.9616788870758484 -0.65265708643457165 -2.7846788966655733 -13.398379028320313 9.8727237610713292
leaf_weight=26 20 36 26 20 33 20 27 22 20 34 25 32 32 21 27 36 23 20 25 23
leaf_count=26 20 36 26 20 33 20 27 22 20 34 25 32 32 21 27 36 23 20 25 23
internal_value=0 -7.54351 6.19019 9.88526 2.93391 8.78186 -11.6976 1.68962 -3.98286 -5.09918 10.5489 3.85341 0.0890023 -0.63803 6.51476 -9.89204 -1.64639 -3.94251 -13.928 9.39276
internal_weight=0 247 301 141 160 121 114 127 133 90 68 54 73 53 53 63 43 54 51 43
internal_count=548 247 301 141 160 121 114 127 133 90 68 54 73 53 53 63 43 54 51 43
is_linear=0
shrinkage=0.1


Tree=2
num_leaves=22
num_cat=0
split_feature=0 0 0 6 0 0 0 6 6 6 0 1 6 6 0 0 0 5 6 0 0
split_gain=2.07273e+06 297047 295928 85656.9 66564.3 54500.3 37186.6 28098.6 25679.7 16497.1 15368.1 11101.7 8756.72 7134.79 4678.91 3955.39 2711.52 2172.96 1289.9 1115.51 349.902
threshold=458.29998779296881 964.00000000000011 134.55000305175784 20.500000000000004 1222.7500000000002 594.95001220703136 52.799999237060554 14.500000000000002 19.500000000000004 11.500000000000002 254.80000305175784 1.0000000180025095e-35 13.500000000000002 9.5000000000000018 404.40000915527349 311.25000000000006 1093.350036621094 2.5000000000000004 28.500000000000004 35.250000000000007 373.75000000000006
decision_type=2 2 2 2 2 2 2 2 2 2 2 2 2 2 2 2 2 2 2 2 2
left_child=2 3 6 5 8 11 19 10 16 -7 -4 12 -2 -8 20 -9 -3 -5 -10 -1 -12
right_child=1 4 7 17 -6 9 13 15 18 -11 14 -13 -14 -15 -16 -17 -18 -19 -20 -21 -22
leaf_value=-13.051222229003907 -2.241098818412194 6.1642394845684372 -6.6963163957595828 6.9905525908750654 14.904739208221436 2.1791303280989331 -10.214857360839844 -2.5102609634399418 9.6762393665313731 5.374830199650356 -4.6171928843726286 1.6221375048160553 0.54212415266782044 -8.0396582245826718 -2.5062109732627871 -0.58739142443822778 7.6836880725363033 5.6967794554574152 10.763624266783397 -12.111328152247838 -4.0593598501248795
leaf_weight=23 26 24 25 34 20 30 25 20 20 35 23 24 20 38 20 23 23 21 24 28 22
leaf_count=23 26 24 25 34 20 30 25 20 20 35 23 24 20 38 20 23 23 21 24 28 22
internal_value=0 5.57117 -6.78916 3.17005 9.6812 1.8148 -10.5278 -3.58458 8.53317 3.89989 -4.58926 -0.121354 -1.031 -8.90283 -3.77885 -1.48175 6.9078 6.49657 10.2694 -12.5352 -4.34447
internal_weight=0 301 247 190 111 135 114 133 91 65 90 70 46 63 65 43 47 55 44 51 45
internal_count=548 301 247 190 111 135 114 133 91 65 90 70 46 63 65 43 47 55 44 51 45
is_linear=0
shrinkage=0.1


Tree=3
num_leaves=21
num_cat=0
split_feature=0 0 0 6 0 0 6 6 0 6 5 0 6 6 1 0 0 0 6 0
split_gain=1.68117e+06 288826 190008 75259.8 67475.4 35404.4 33262.7 25733.2 20390.1 15354.8 12627.5 11018.4 9534.78 7673.8 5244.26 5198.49 3767.81 1066.33 960.482 751.221
threshold=412.54998779296881 830.39999389648449 111.4499969482422 24.500000000000004 1222.7500000000002 590.15002441406261 16.500000000000004 8.5000000000000018 51.549999237060554 12.500000000000002 4.5000000000000009 228.34999847412112 11.500000000000002 14.500000000000002 1.0000000180025095e-35 1012.5000000000001 86.050003051757827 1084.7000122070315 12.500000000000002 554.60000610351574
decision_type=2 2 2 2 2 2 2 2 2 2 2 2 2 2 2 2 2 2 2 2
left_child=2 3 8 5 6 9 15 -4 18 14 17 -9 -7 -13 -2 -3 -10 -8 -1 -11
right_child=1 4 7 -5 -6 12 10 11 16 19 -12 13 -14 -15 -16 -17 -18 -19 -20 -21
leaf_value=-11.752800015040807 -2.1338683362930051 4.2568908480497507 -6.3144611348708475 6.2368356971179741 13.414265213012696 1.450259064544331 8.1028882360458372 -4.7649138064220038 -9.2222851816813147 1.6984438669113886 10.395102340698243 -3.380568827220372 4.1546280324459079 -1.1367640019015031 -0.08717325074332101 6.2379983010115447 -7.4758214133126408 7.1044953968213953 -10.845457534790039 0.8420944218337536
leaf_weight=28 31 26 36 34 20 22 20 29 30 21 25 35 32 27 21 27 21 23 20 20
leaf_count=28 31 26 36 34 20 22 20 29 30 21 25 35 32 27 21 27 21 23 20 20
internal_value=0 4.64026 -6.61135 1.99688 8.03354 1.01621 7.14416 -4.0513 -9.89544 -0.166359 8.60792 -3.15599 3.05285 -2.40343 -1.30732 5.26613 -8.50315 7.56886 -11.3747 1.28071
internal_weight=0 322 226 181 141 147 121 127 99 93 68 91 54 62 52 53 51 43 48 41
internal_count=548 322 226 181 141 147 121 127 99 93 68 91 54 62 52 53 51 43 48 41
is_linear=0
shrinkage=0.1


Tree=4
num_leaves=20
num_cat=0
split_feature=0 0 0 6 6 1 6 6 0 0 6 0 0 6 0 0 5 6 6
split_gain=1.36508e+06 249812 136858 63016.2 57678.1 37351.6 23091.8 20392.3 16516 14239.9 13721.9 10498.6 7506.33 3213.28 3051.93 2270 1930.89 777.99 530.365
threshold=404.40000915527349 830.39999389648449 111.4499969482422 12.500000000000002 46.500000000000007 1.0000000180025095e-35 9.5000000000000018 24.500000000000004 51.549999237060554 567.85000610351574 19.500000000000004 637.90002441406261 228.34999847412112 14.500000000000002 86.050003051757827 1025.799987792969 1.5000000000000002 12.500000000000002 18.500000000000004
decision_type=2 2 2 2 2 2 2 2 2 2 2 2 2 2 2 2 2 2 2
left_child=2 3 8 9 5 10 -4 11 17 16 15 18 -8 -14 -10 -3 -2 -1 -5
right_child=1 4 6 7 -6 -7 12 -9 14 -11 -12 -13 13 -15 -16 -17 -18 -19 -20
leaf_value=-10.577520098005024 -0.79026617556810386 3.3977570635931835 -5.8936049963298593 1.288423071242869 12.204963283538818 9.2183987729689658 -4.2197878322431022 5.204705359869533 -8.3000564575195312 1.2747521646561162 6.7028272723540283 4.2368683564662932 -2.9167151957750321 -1.3398624673485757 -6.7282391820635112 4.7840085365154126 -2.0230202666035408 -9.7609119796752939 1.9448693764209748
leaf_weight=28 24 21 38 32 20 34 28 36 30 31 39 20 28 24 21 27 27 20 20
leaf_count=28 24 21 38 32 20 34 28 36 30 31 39 20 28 24 21 27 27 20 20
internal_value=0 4.04115 -6.16414 1.67454 7.23019 6.40791 -3.86386 3.26142 -8.90589 -0.415495 5.30956 2.28978 -2.89973 -2.18894 -7.65284 4.17752 -1.4429 -10.2373 1.5409
internal_weight=0 331 217 190 141 121 118 108 99 82 87 72 80 52 51 48 51 48 52
internal_count=548 331 217 190 141 121 118 108 99 82 87 72 80 52 51 48 51 48 52
is_linear=0
shrinkage=0.1


Tree=5
num_leaves=19
num_cat=0
split_feature=0 0 0 0 0 6 0 6 6 6 1 0 6 6 0 5 5 6
split_gain=1.10952e+06 250410 90487.6 39422.9 35411 29651.6 22772.5 16870 16095.8 15525.2 14834.4 13150.2 8924.27 6706.1 3276.78 2363.51 1655.35 1611.2
threshold=567.85000610351574 143.80000305175784 979.20001220703136 1222.7500000000002 404.40000915527349 24.500000000000004 64.450000762939467 9.5000000000000018 9.5000000000000018 13.500000000000002 1.0000000180025095e-35 631.75000000000011 19.500000000000004 9.5000000000000018 798.34997558593761 1.5000000000000002 1.5000000000000002 14.500000000000002
decision_type=2 2 2 2 2 2 2 2 2 2 2 2 2 2 2 2 2 2
left_child=1 6 5 10 7 8 15 -3 -2 16 12 -10 -4 -8 -13 -1 -6 -9
right_child=2 4 3 -5 9 -7 13 17 11 -11 -12 14 -14 -15 -16 -17 -18 -19
leaf_value=-9.3922605614913142 0.20444614316026369 -4.9980735842386892 4.0677898142072895 11.232795982360841 -0.71832396319279312 5.7737728905033423 -7.5570213681175602 -2.5863555196169266 1.4781073708986414 1.4602251247926192 8.234519358034488 3.3635506072044374 6.5545715270503884 -5.3084244330724086 4.9994100193182627 -8.140310150146485 -1.8264163196086884 -1.6001872873306278
leaf_weight=38 24 30 27 20 26 37 21 37 29 33 27 25 31 36 24 25 28 30
leaf_count=38 24 30 27 20 26 37 21 37 29 33 27 25 31 36 24 25 28 30
internal_value=0 -4.0312 5.02248 7.23819 -1.71343 3.34875 -7.58512 -3.02725 2.46908 -0.248605 6.29828 3.16589 5.39693 -6.13685 4.16479 -8.89545 -1.29289 -2.14479
internal_weight=0 304 244 105 184 139 120 97 102 87 85 78 58 57 49 63 54 67
internal_count=548 304 244 105 184 139 120 97 102 87 85 78 58 57 49 63 54 67
is_linear=0
shrinkage=0.1


Tree=6
num_leaves=20
num_cat=0
split_feature=0 0 0 6 5 0 0 0 6 1 2 6 0 6 6 6 5 0 0
split_gain=900183 132995 129158 36269.7 35955.9 38214.8 24017.8 18445.8 15137.7 8749.42 8191.1 7926.04 5500.79 5431.94 4760.1 3455.97 2238.12 2121.84 718.592
threshold=458.29998779296881 964.00000000000011 143.80000305175784 20.500000000000004 3.5000000000000004 1173.2000122070315 594.95001220703136 64.450000762939467 9.5000000000000018 1.0000000180025095e-35 1.0000000180025095e-35 16.500000000000004 365.85000610351568 9.5000000000000018 18.500000000000004 13.500000000000002 2.5000000000000004 43.000000000000007 311.25000000000006
decision_type=2 2 2 2 2 2 2 2 2 2 2 2 2 2 2 2 2 2 2
left_child=2 3 7 6 -3 11 9 17 12 15 -8 -6 -4 -9 18 -2 -5 -1 -10
right_child=1 4 8 16 5 -7 10 13 14 -11 -12 -13 -14 -15 -16 -17 -18 -19 -20
leaf_value=-8.5249851117815307 -1.6701190010501215 3.0834541487693787 -4.8319676357766861 4.7307835984317697 4.5662729203701025 10.5080628712972 1.3163886407326009 -6.8013195582798547 -1.5741362680088391 1.4454358463486037 3.5746678993933729 6.9257434735979366 -2.5643604922294618 -4.7775819861226614 -0.43351664543151858 0.078367179632186895 3.4177553012257533 -7.357064206259591 -2.3119625944079778
leaf_weight=35 26 25 23 34 24 27 29 21 22 24 36 35 20 36 29 20 21 28 33
leaf_count=35 26 25 23 34 24 27 29 21 22 24 36 35 20 36 29 20 21 28 33
internal_value=0 3.67147 -4.47414 2.06483 6.42158 7.39197 1.18295 -6.82661 -2.25134 -0.102361 2.56713 5.96596 -3.77727 -5.52317 -1.47021 -0.909908 4.22945 -8.00591 -2.01683
internal_weight=0 301 247 190 111 86 135 120 127 70 65 59 43 57 84 46 55 63 55
internal_count=548 301 247 190 111 86 135 120 127 70 65 59 43 57 84 46 55 63 55
is_linear=0
shrinkage=0.1


Tree=7
num_leaves=21
num_cat=0
split_feature=0 0 5 0 0 2 2 6 0 0 6 5 0 6 6 6 0 6 5 0
split_gain=730643 166726 63001.5 48478 25646.5 26172.7 21304.8 16230.4 21358 14312.3 10521.7 9975.04 7043.46 6246.35 4626.81 4589.75 2154.97 1509.95 1301.95 804.234
threshold=567.85000610351574 228.34999847412112 3.5000000000000004 1173.2000122070315 86.050003051757827 1.0000000180025095e-35 1.0000000180025095e-35 24.500000000000004 668.04998779296886 404.40000915527349 13.500000000000002 4.5000000000000009 964.00000000000011 19.500000000000004 14.500000000000002 14.500000000000002 590.15002441406261 9.5000000000000018 1.5000000000000002 40.349998474121101
decision_type=2 2 2 2 2 2 2 2 2 2 2 2 2 2 2 2 2 2 2 2
left_child=1 4 6 11 14 -6 -2 8 16 15 18 12 -4 -13 19 17 -8 -3 -11 -1
right_child=2 9 3 -5 5 -7 7 -9 -10 10 -12 13 -14 -15 -16 -17 -18 -19 -20 -21
leaf_value=-7.9962684631347658 0.42398237075124473 -3.2780279250372026 2.2892749633107865 9.457256740993925 -2.4149356658118113 -6.4050100265010714 0.47032965302467344 5.5585209791859 4.9973037535729619 -0.53337625448520365 1.2235339235175742 4.5235137259960174 4.6940213733705987 6.9928510597773972 -5.938264012336731 -0.94911376039187112 1.8758161973829073 -2.1562926088060652 -1.5160946083920344 -7.1883158343178897
leaf_weight=22 35 21 21 27 35 31 20 24 23 26 33 20 29 21 28 24 24 28 28 28
leaf_count=22 35 21 21 27 35 31 20 24 23 26 33 20 29 21 28 24 24 28 28 28
internal_value=0 -3.2713 4.07572 5.73617 -5.73986 -4.28906 2.5207 3.32713 2.52782 -1.0496 -0.183239 4.6321 3.68403 5.7883 -6.96746 -2.0821 1.23696 -2.63704 -1.04293 -7.54381
internal_weight=0 304 244 118 144 66 126 91 67 160 87 91 50 41 78 73 44 49 54 50
internal_count=548 304 244 118 144 66 126 91 67 160 87 91 50 41 78 73 44 49 54 50
is_linear=0
shrinkage=0.1


Tree=8
num_leaves=22
num_cat=0
split_feature=0 0 0 0 6 0 0 6 6 0 5 0 6 0 6 6 0 0 0 0 0
split_gain=591873 90236.7 86520.9 28980.5 24337.1 15255.3 12004.6 10626.2 10624.6 7318.71 7195.72 5420.14 4696.67 3397.07 3222.64 2165.42 1650.8 1030.26 816.432 723.28 57.7835
threshold=458.29998779296881 964.00000000000011 143.80000305175784 1222.7500000000002 24.500000000000004 615.04998779296886 52.799999237060554 9.5000000000000018 19.500000000000004 512.80001831054699 2.5000000000000004 573.40002441406261 9.5000000000000018 365.85000610351568 18.500000000000004 11.500000000000002 86.050003051757827 1101.7000122070315 311.25000000000006 35.250000000000007 702.94998168945324
decision_type=2 2 2 2 2 2 2 2 2 2 2 2 2 2 2 2 2 2 2 2 2
left_child=2 4 6 8 5 9 19 13 15 -2 -7 -11 -8 -4 18 -3 -14 -10 -9 -1 -6
right_child=1 3 7 -5 20 10 12 14 17 11 -12 -13 16 -15 -16 -17 -18 -19 -20 -21 -22
leaf_value=-7.132234274822733 1.7825390803813936 2.6841151112601871 -3.9159560701121459 8.6890102910995477 3.9655144286155704 3.1612110287802562 -5.7879730072021491 -1.1320759632370689 6.1080181266580311 -1.1757026209621817 1.1334439277648927 0.77915888869244121 -4.742537430524826 -2.1339560651779172 -0.30118570821038609 4.0494019476983416 -3.5124027530352273 5.1392377314360251 -1.9185293818965103 -6.3754091807774138 3.7251324391365053
leaf_weight=23 20 21 23 20 20 35 25 22 21 37 35 23 20 20 29 26 24 23 33 28 20
leaf_count=23 20 21 23 20 20 35 25 22 21 37 35 23 20 20 29 26 24 23 33 28 20
internal_value=0 2.97707 -3.62793 5.24236 1.65366 1.06922 -5.55334 -1.80864 4.48485 0.12588 2.14733 -0.426339 -4.69345 -3.08712 -1.15418 3.43938 -4.07155 5.60161 -1.60395 -6.71672 3.84532
internal_weight=0 301 247 111 190 150 120 127 91 80 70 60 69 43 84 47 44 44 55 51 40
internal_count=548 301 247 111 190 150 120 127 91 80 70 60 69 43 84 47 44 44 55 51 40
is_linear=0
shrinkage=0.1


Tree=9
num_leaves=21
num_cat=0
split_feature=0 5 0 0 6 2 0 5 0 0 0 6 0 0 6 5 1 6 0 6
split_gain=482989 95114.6 49308.1 36467.2 26418.3 11205.8 21816.2 8191.66 7839.74 6381.97 5810.28 5645.25 5536.82 4238.37 3550.23 1960.23 1649.17 1638.18 585.322 454.46
threshold=404.40000915527349 3.5000000000000004 111.4499969482422 1173.2000122070315 12.500000000000002 1.0000000180025095e-35 239.59999847412112 4.5000000000000009 570.35000610351574 631.75000000000011 51.549999237060554 24.500000000000004 964.00000000000011 646.65002441406261 19.500000000000004 1.5000000000000002 1.0000000180025095e-35 13.500000000000002 332.00000000000006 12.500000000000002
decision_type=2 2 2 2 2 2 2 2 2 2 2 2 2 2 2 2 2 2 2 2
left_child=2 4 10 7 9 -4 -7 12 -6 16 19 13 -3 -10 -9 18 -2 -12 -8 -1
right_child=1 3 5 -5 8 6 15 14 11 -11 17 -13 -14 -15 -16 -17 -18 -19 -20 -21
leaf_value=-6.3620236805507115 -1.2356916293727629 1.7089099547137385 -0.25021667927503588 7.8761938103923086 0.85219289592334213 -5.162262552755851 -2.5195057938496275 3.7810066366195678 1.008415278668205 0.98725247979164132 -5.043263359069825 3.6518524776805528 3.7865440627624247 2.8512741674597448 5.6218909036029467 -1.0303249034014614 -0.18186504620092889 -3.8916800033478509 -1.8135509864143704 -5.7378948020935061
leaf_weight=28 33 23 22 27 35 27 24 20 24 32 30 33 29 26 22 22 27 21 23 20
leaf_count=28 33 23 22 27 35 27 24 20 24 32 30 33 29 26 22 22 27 21 23 20
internal_value=0 2.40378 -3.66659 4.63697 1.11703 -2.28587 -2.75238 3.70656 2.1074 -0.153218 -5.3123 2.6367 2.86759 1.9667 4.74528 -1.80938 -0.76147 -4.56908 -2.17404 -6.10197
internal_weight=0 331 217 121 210 118 96 94 118 92 99 83 52 50 42 69 60 51 47 48
internal_count=548 331 217 121 210 118 96 94 118 92 99 83 52 50 42 69 60 51 47 48
is_linear=0
shrinkage=0.1


Tree=10
num_leaves=21
num_cat=0
split_feature=0 0 0 1 0 2 6 6 0 0 6 0 0 6 6 6 0 6 0 6
split_gain=391316 90306.7 39194.5 24454.4 13780.1 18019.1 13472.5 12685.5 10656.7 7434.83 6358.56 5508.37 3856.68 3016.82 2742.57 1793.88 1093.7 786.066 376.121 108.948
threshold=567.85000610351574 228.34999847412112 1222.7500000000002 1.0000000180025095e-35 86.050003051757827 1.0000000180025095e-35 15.500000000000002 19.500000000000004 912.29998779296886 404.40000915527349 13.500000000000002 1093.350036621094 675.75000000000011 14.500000000000002 14.500000000000002 11.500000000000002 519.30001831054699 9.5000000000000018 40.349998474121101 27.500000000000004
decision_type=2 2 2 2 2 2 2 2 2 2 2 2 2 2 2 2 2 2 2 2
left_child=1 4 3 7 13 -6 -5 12 19 14 16 -10 -2 18 17 -14 -11 -3 -1 -9
right_child=2 9 -4 6 5 -7 -8 8 11 10 -12 -13 15 -15 -16 -17 -18 -19 -20 -21
leaf_value=-5.8854814356023617 -0.011281840367750689 -2.3945705902008783 7.2243137872219085 3.0100370475740146 -1.5923255473162448 -4.9030524899882657 6.0537639072308176 1.5638450460135938 5.2106979370117195 -0.45766833985553074 0.95908157468745214 2.863706809282303 1.0014315471053123 -4.2796062214033945 -0.62730523149172468 2.0687918132351295 -1.389616426229477 -1.5852159791226899 -5.3329482078552246 1.8939174163341523
leaf_weight=22 22 21 20 33 35 31 26 20 20 34 33 20 32 28 24 31 20 28 28 20
leaf_count=22 22 21 20 33 35 31 26 20 20 34 33 20 32 28 24 31 20 28 28 20
internal_value=0 -2.39404 2.98274 2.60403 -4.21082 -3.14736 4.35134 1.97923 2.88304 -0.758942 -0.134521 4.0372 1.12859 -5.11067 -1.50311 1.52664 -0.802834 -1.93208 -5.57606 1.72888
internal_weight=0 304 244 224 144 66 59 165 80 160 87 40 85 78 73 63 54 49 50 40
internal_count=548 304 244 224 144 66 59 165 80 160 87 40 85 78 73 63 54 49 50 40
is_linear=0
shrinkage=0.1


Tree=11
num_leaves=21
num_cat=0
split_feature=0 0 6 1 0 0 1 5 2 0 0 6 6 5 6 6 0 0 0 0
split_gain=316966 73675.9 35050.9 30484.5 19197.6 9946.97 11127.4 8960.37 15347.6 16275.7 6216.58 5150.43 4055.66 3700.79 3450.72 2642.69 2059.54 1989.48 885.898 448.824
threshold=567.85000610351574 143.80000305175784 49.500000000000007 1.0000000180025095e-35 1047.5000000000002 404.40000915527349 1.0000000180025095e-35 3.5000000000000004 1.0000000180025095e-35 686.75000000000011 51.549999237060554 13.500000000000002 8.5000000000000018 1.5000000000000002 20.500000000000004 13.500000000000002 294.25000000000006 94.950000762939467 519.30001831054699 35.250000000000007
decision_type=2 2 2 2 2 2 2 2 2 2 2 2 2 2 2 2 2 2 2 2
left_child=1 10 3 7 15 6 12 8 -2 -10 19 18 -3 17 -9 -5 -14 -12 -7 -1
right_child=2 5 -4 4 -6 11 -8 14 9 -11 13 -13 16 -15 -16 -17 -18 -19 -20 -21
leaf_value=-5.2826800470766813 -0.8501691376009296 -3.3247495407149907 6.4917936157096525 2.1550221437215806 6.7623334026336668 -0.41190151620437121 0.50780609622597694 1.7850435664933741 0.41375458604759641 3.5675196846326198 -4.7111133748834781 0.863173433867368 -2.4490927154367625 -2.5116673698425291 3.2424462794791911 3.7806582891941072 -1.207358134844724 -3.4072350707054144 -1.2506547856330874 -4.6705765686035159
leaf_weight=23 31 21 22 20 20 34 20 33 36 30 22 33 22 25 32 20 34 25 20 25
leaf_count=23 31 21 22 20 20 34 20 33 36 30 22 33 22 25 32 20 34 25 20 25
internal_value=0 -2.15464 2.68447 2.30716 4.23267 -0.897429 -1.59375 1.59401 0.985211 1.84728 -4.08236 -0.121069 -2.13961 -3.49468 2.50253 2.96784 -1.69518 -4.01756 -0.722551 -4.96388
internal_weight=0 304 244 222 60 184 97 162 97 66 120 87 77 72 65 40 56 47 54 48
internal_count=548 304 244 222 60 184 97 162 97 66 120 87 77 72 65 40 56 47 54 48
is_linear=0
shrinkage=0.1


Tree=12
num_leaves=20
num_cat=0
split_feature=0 5 0 0 2 0 1 6 6 0 0 0 0 6 0 6 5 6 0
split_gain=257238 44913.8 38381 24804.7 11592.1 17517.8 12682.9 6204.76 5409.12 5254.44 6296.11 3264.09 2756.88 2428.88 2359.81 1242.05 1164.25 120.499 98.7147
threshold=458.29998779296881 3.5000000000000004 143.80000305175784 1173.2000122070315 1.0000000180025095e-35 646.65002441406261 1.0000000180025095e-35 8.5000000000000018 17.500000000000004 983.20001220703136 1077.2500000000002 760.35000610351574 48.699998855590827 12.500000000000002 399.50000000000006 9.5000000000000018 1.5000000000000002 17.500000000000004 306.90000915527349
decision_type=2 2 2 2 2 2 2 2 2 2 2 2 2 2 2 2 2 2 2
left_child=2 4 8 9 -2 6 13 -4 12 17 -11 -7 -1 -6 16 -14 18 -3 -9
right_child=1 3 7 -5 5 11 -8 14 -10 10 -12 -13 15 -15 -16 -17 -18 -19 -20
leaf_value=-4.6732491055050414 -0.61653546562065953 2.0226500159218199 -2.3132574397751262 6.124033744246872 -1.179220496253534 2.2339098674279674 1.9844546763035351 -1.1943838990651645 -2.2571085778149693 4.6940258818013332 2.4514497524307624 3.91942652463913 -4.0855139427714873 0.16167475393840247 0.18234727325893585 -3.1770385938532213 -0.47504481410980226 1.6838863423892432 -1.4898912239074709
leaf_weight=37 37 21 35 27 22 27 39 26 22 21 31 20 27 35 21 34 25 21 20
leaf_count=37 37 21 35 27 22 27 39 26 22 21 31 20 27 35 21 34 25 21 20
internal_value=0 1.96265 -2.39173 3.45253 0.961121 1.36933 0.594891 -1.18002 -3.67412 2.68518 3.35711 2.95115 -3.99223 -0.355864 -0.748898 -3.57915 -1.02434 1.85327 -1.32287
internal_weight=0 301 247 121 180 143 96 127 120 94 52 47 98 57 92 61 71 42 46
internal_count=548 301 247 121 180 143 96 127 120 94 52 47 98 57 92 61 71 42 46
is_linear=0
shrinkage=0.1


Tree=13
num_leaves=21
num_cat=0
split_feature=0 0 0 1 6 0 0 2 6 6 0 1 0 2 0 5 0 3 6 0
split_gain=210162 49067.4 28547.8 14649.9 9478.93 7855.39 7779.62 14207.1 6371.81 4837.47 4150.45 3109.22 2493.18 3841.16 2217.62 2010.62 1729.91 935.656 918.888 367.02
threshold=567.85000610351574 228.34999847412112 1222.7500000000002 1.0000000180025095e-35 15.500000000000002 912.29998779296886 86.050003051757827 1.0000000180025095e-35 19.500000000000004 15.500000000000002 1093.350036621094 1.0000000180025095e-35 615.04998779296886 1.0000000180025095e-35 408.19999694824224 1.5000000000000002 404.40000915527349 1.0000000180025095e-35 10.500000000000002 365.85000610351568
decision_type=2 2 2 2 2 2 2 2 2 2 2 2 2 2 2 2 2 2 2 2
left_child=1 6 3 5 -5 12 15 -8 -7 11 -10 14 -2 -14 19 18 -11 -15 -1 -3
right_child=2 9 -4 4 -6 8 7 -9 10 16 -12 -13 13 17 -16 -17 -18 -19 -20 -21
leaf_value=-4.5908122406005862 -0.24779625043272971 -2.0353605301607227 5.8058274702727797 2.0900178961230047 4.643083768538558 1.170887455424747 -0.91380668503897544 -3.8535526806308376 4.0102517065405854 -0.32410679080269555 1.9729871034622193 -0.097401541865923827 0.096173460836763744 2.1217550520598887 -0.68542989821810474 -3.1275531307856244 0.90354175219933186 1.1660466035207113 -3.7149861045505688 -1.4441387397902352
leaf_weight=25 20 21 20 33 26 37 35 31 20 22 20 34 27 20 38 30 24 21 23 21
leaf_count=25 20 21 20 33 26 37 35 31 20 22 20 34 27 20 38 30 24 21 23 21
internal_value=0 -1.75447 2.18589 1.86268 3.2151 1.37909 -3.09365 -2.2946 2.11672 -0.549205 2.99162 -0.898487 0.733669 1.02233 -1.23895 -3.76976 0.316405 1.63225 -4.17115 -1.73975
internal_weight=0 304 244 224 59 165 144 66 77 160 40 114 88 68 80 78 46 41 48 42
internal_count=548 304 244 224 59 165 144 66 77 160 40 114 88 68 80 78 46 41 48 42
is_linear=0
shrinkage=0.1


Tree=14
num_leaves=20
num_cat=0
split_feature=0 0 6 1 0 0 2 5 2 0 0 6 1 6 0 6 5 0 6
split_gain=170231 39744.6 25833.5 19697.4 13404.4 6301.5 11507.8 4668.26 10698.9 9513.67 4293.14 3918.35 2518.47 1973.15 1840.66 1665.33 1628.6 1401.23 744.299
threshold=567.85000610351574 228.34999847412112 49.500000000000007 1.0000000180025095e-35 1047.5000000000002 86.050003051757827 1.0000000180025095e-35 3.5000000000000004 1.0000000180025095e-35 686.75000000000011 1077.2500000000002 15.500000000000002 1.0000000180025095e-35 8.5000000000000018 408.19999694824224 13.500000000000002 1.5000000000000002 404.40000915527349 10.500000000000002
decision_type=2 2 2 2 2 2 2 2 2 2 2 2 2 2 2 2 2 2 2
left_child=1 5 3 7 15 16 -7 8 -2 -10 -9 12 13 -3 -15 -5 18 -13 -1
right_child=2 11 -4 4 -6 6 -8 10 9 -11 -12 17 -14 14 -16 -17 -18 -19 -20
leaf_value=-4.1317310028076175 -0.90170844062682132 -1.7918486557900906 5.2359031053429304 1.489035954475403 5.3049628686904917 -0.822426015990121 -3.4681974411010743 2.5512036731466652 0.25447055962350634 2.6656760764122009 0.92560897306962442 -0.29169608462940561 -0.087661418406402361 -1.3014463622655188 -0.10799907476951678 2.7795134161412718 -2.8147978226343793 0.81318758800625801 -3.3434874907783847
leaf_weight=25 31 28 22 20 20 35 31 32 36 30 33 22 34 28 24 20 30 24 23
leaf_count=25 31 28 22 20 20 35 31 32 36 30 33 22 34 28 24 20 30 24 23
internal_value=0 -1.57902 1.9673 1.64339 3.19117 -2.78428 -2.06514 1.07014 0.630704 1.35047 1.7259 -0.494285 -0.808638 -1.11505 -0.750625 2.13427 -3.39279 0.284765 -3.75403
internal_weight=0 304 244 222 60 144 66 162 97 66 65 160 114 80 52 40 78 46 48
internal_count=548 304 244 222 60 144 66 162 97 66 65 160 114 80 52 40 78 46 48
is_linear=0
shrinkage=0.1


Tree=15
num_leaves=21
num_cat=0
split_feature=0 0 0 6 5 2 0 0 1 0 0 6 6 5 0 0 6 0 6 0
split_gain=137887 32780.3 22923.8 10915.7 5044.89 8736.68 8247.52 4325.64 6858.57 5589.34 4692.6 4978.8 4259.4 3682.45 1995.36 2710.94 1008.55 996.492 782.733 610.421
threshold=567.85000610351574 134.55000305175784 1222.7500000000002 24.500000000000004 3.5000000000000004 1.0000000180025095e-35 646.65002441406261 404.40000915527349 1.0000000180025095e-35 239.59999847412112 519.30001831054699 12.500000000000002 38.500000000000007 1.5000000000000002 1077.2500000000002 964.00000000000011 14.500000000000002 94.950000762939467 12.500000000000002 798.34997558593761
decision_type=2 2 2 2 2 2 2 2 2 2 2 2 2 2 2 2 2 2 2 2
left_child=1 13 3 4 5 -2 -7 8 9 -3 11 -9 19 17 15 -6 -11 18 -1 -5
right_child=2 7 -4 12 14 6 -8 10 -10 16 -12 -13 -14 -15 -16 -17 -18 -19 -20 -21
leaf_value=-3.7103895068168642 -1.1939785480499268 -2.9405838298797611 5.0144008588790898 2.822068355083466 1.3022791294824509 0.13356105144086636 2.3728401907559102 -0.28945535430402469 0.4665889299434165 -1.3221970053095566 -1.0370793108574368 1.6802111995184708 1.5488026413917542 -1.9579327608409682 1.0158618032932283 2.909091839336214 -0.47140741998499092 -2.5962824453007092 -2.9355400215495719 3.603363072872162
leaf_weight=32 22 20 20 20 21 38 29 33 23 38 33 21 25 38 28 21 22 22 22 20
leaf_count=32 22 20 20 20 21 38 29 33 23 38 33 21 25 38 28 21 22 22 22 20
internal_value=0 -1.42112 1.77057 1.48095 1.03461 0.535058 1.1028 -0.616767 -1.05529 -1.49283 -0.0976001 0.476526 2.57275 -2.7617 1.66976 2.10569 -1.01024 -3.16359 -3.39471 3.21272
internal_weight=0 304 244 224 159 89 67 190 103 80 87 54 65 114 70 42 60 76 54 40
internal_count=548 304 244 224 159 89 67 190 103 80 87 54 65 114 70 42 60 76 54 40
is_linear=0
shrinkage=0.1


Tree=16
num_leaves=21
num_cat=0
split_feature=0 6 0 1 0 0 2 0 4 5 6 0 5 6 6 6 0 6 6 0
split_gain=112594 26445.2 17366.3 16454.2 13959 7265.82 5395.22 8147.63 4921.73 10446.7 3305.38 3113.31 2936.99 2741.82 2228.43 894.793 715.772 213.679 150.293 106.857
threshold=458.29998779296881 51.500000000000007 111.4499969482422 1.0000000180025095e-35 1047.5000000000002 686.75000000000011 1.0000000180025095e-35 239.59999847412112 1.0000000180025095e-35 3.5000000000000004 11.500000000000002 1077.2500000000002 1.5000000000000002 11.500000000000002 18.500000000000004 13.500000000000002 590.15002441406261 8.5000000000000018 11.500000000000002 52.799999237060554
decision_type=2 2 2 2 2 2 2 2 2 2 2 2 2 2 2 2 2 2 2 2
left_child=2 3 12 5 10 13 -4 -8 -7 -10 -5 -11 15 -2 17 19 -15 -9 -19 -1
right_child=1 -3 6 4 -6 8 7 14 9 11 -12 -13 -14 16 -16 -17 -18 18 -20 -21
leaf_value=-3.1246620427007263 -1.1227764694587046 4.8118752455711373 0.54837664257396346 0.64993159404167766 4.5492751681804657 2.1475256884098051 -2.6886514526826364 -1.2355479332116934 -0.86713654066125556 2.0913814388215544 2.1477540689356185 0.71712176238789282 -1.8710394859313966 -0.10483786007389427 0.087359363079071051 -2.4753061528716769 0.65776580908335758 -0.69511474008145546 -1.049321298122406 -3.4407128667831426
leaf_weight=23 23 20 22 26 20 30 27 26 30 32 34 34 35 32 25 21 20 23 25 20
leaf_count=23 23 20 22 26 20 30 27 26 30 32 34 34 35 32 25 21 20 23 25 20
internal_value=0 1.29847 -1.58235 1.04841 2.26134 0.565645 -0.896556 -1.14885 1.02951 0.680128 1.4987 1.38343 -2.60757 -0.213645 -0.728898 -3.01036 0.188471 -1.00466 -0.879597 -3.27166
internal_weight=0 301 247 281 80 201 148 126 126 96 60 66 99 75 99 64 52 74 48 43
internal_count=548 301 247 281 80 201 148 126 126 96 60 66 99 75 99 64 52 74 48 43
is_linear=0
shrinkage=0.1


Tree=17
num_leaves=21
num_cat=0
split_feature=0 0 0 5 1 0 0 6 6 6 5 6 0 3 0 0 0 0 0 6
split_gain=91200.9 21563.7 14415.1 10498.7 5473.03 6189.64 4672.78 3316.27 2958.19 2747.76 2575.29 2180.62 1433.07 2983.41 1335.96 2124.77 637.525 518.418 508.006 405.892
threshold=458.29998779296881 1211.299987792969 134.55000305175784 4.5000000000000009 1.0000000180025095e-35 912.29998779296886 1047.5000000000002 19.500000000000004 18.500000000000004 11.500000000000002 1.5000000000000002 8.5000000000000018 590.15002441406261 1.0000000180025095e-35 228.34999847412112 311.25000000000006 40.349998474121101 557.25000000000011 404.40000915527349 9.5000000000000018
decision_type=2 2 2 2 2 2 2 2 2 2 2 2 2 2 2 2 2 2 2 2
left_child=2 3 10 4 5 11 -7 -5 14 -6 16 -2 17 -14 -4 -16 -1 -13 -17 -18
right_child=1 -3 8 7 9 6 -8 -9 -10 -11 -12 12 13 -15 15 18 19 -19 -20 -21
leaf_value=-3.0540653228759767 -0.97747224330902105 4.1112604161967408 -1.6292720009883244 1.4457703599875624 0.72368447383244838 2.1956689464825172 0.39622220646950512 3.1631086390951406 0.13863471554171655 2.1489129258740336 -1.5770992148863643 0.089987478256225592 1.4405026261295593 -0.051811693004659709 0.056619234518571343 -1.3365209409168788 -2.6830233467949762 -0.61347111897035089 -0.71438566503070655 -2.139616072177887
leaf_weight=21 20 23 24 22 24 27 31 23 31 31 38 20 21 37 22 35 27 22 21 28
leaf_count=21 20 23 24 22 24 27 31 23 31 31 38 20 21 37 22 35 27 22 21 28
internal_value=0 1.16862 -1.42411 0.925168 0.655099 0.385693 1.2339 2.32352 -0.716839 1.527 -2.24926 -0.0242711 0.166369 0.488509 -0.976836 -0.776086 -2.58535 -0.278491 -1.10322 -2.40638
internal_weight=0 301 247 278 233 178 58 45 133 55 114 120 100 58 102 78 76 42 56 55
internal_count=548 301 247 278 233 178 58 45 133 55 114 120 100 58 102 78 76 42 56 55
is_linear=0
shrinkage=0.1


Tree=18
num_leaves=20
num_cat=0
split_feature=0 0 6 1 0 6 6 0 5 2 0 0 0 0 6 6 0 0 0
split_gain=74524.4 17563.6 15480.5 11779.3 7856.43 2881.05 2542.64 2931.61 2027.44 6727.84 4656.73 3206.06 1153.25 930.845 801.793 702.578 595.716 1116.2 764.721
threshold=567.85000610351574 143.80000305175784 49.500000000000007 1.0000000180025095e-35 1047.5000000000002 17.500000000000004 13.500000000000002 296.15000915527349 3.5000000000000004 1.0000000180025095e-35 686.75000000000011 1077.2500000000002 48.699998855590827 404.40000915527349 13.500000000000002 9.5000000000000018 519.30001831054699 441.30000305175787 391.50000000000006
decision_type=2 2 2 2 2 2 2 2 2 2 2 2 2 2 2 2 2 2 2
left_child=1 5 3 8 14 12 7 -3 9 -2 -11 -10 -1 -8 -5 -14 17 18 -9
right_child=2 6 -4 4 -6 -7 13 16 11 10 -12 -13 15 -15 -16 -17 -18 -19 -20
leaf_value=-2.6585975389222845 -0.89715901228689376 -1.5499900956307688 3.8319174297831275 0.99099351406097425 3.8661193853616718 -0.95181645913557578 -0.30267595979902479 -0.12794563987038352 1.7529798083007337 0.12200459970368281 1.8089484299222631 0.34819367645364818 -2.3318016158209907 0.43260768664379912 1.8864226341247559 -1.6485337874468635 -0.88853034019470223 0.3561518096923828 -0.9617328015240757
leaf_weight=37 31 31 22 20 20 22 36 22 32 36 30 33 27 33 20 34 20 20 22
leaf_count=37 31 31 22 20 20 22 36 22 32 36 30 33 27 33 20 34 20 20 22
internal_value=0 -1.04476 1.30167 1.05092 2.24785 -1.98597 -0.430926 -0.718871 0.60762 0.318028 0.888797 1.03978 -2.21813 0.0489814 1.43871 -1.95096 -0.412149 -0.26328 -0.544839
internal_weight=0 304 244 222 60 120 184 115 162 97 66 65 98 69 40 61 84 64 44
internal_count=548 304 244 222 60 120 184 115 162 97 66 65 98 69 40 61 84 64 44
is_linear=0
shrinkage=0.1


Tree=19
num_leaves=22
num_cat=0
split_feature=0 0 0 6 6 0 6 6 0 0 0 6 0 0 2 0 6 0 0 0 0
split_gain=60364.7 14816 14226.5 5995.75 4728.07 2392.22 2354.34 2333.65 1871.29 5783.5 1510.2 2978.13 1229.24 2164.42 1181.07 2544.3 1131.01 1470.17 486.381 386.061 349.861
threshold=567.85000610351574 1222.7500000000002 143.80000305175784 24.500000000000004 38.500000000000007 830.39999389648449 6.5000000000000009 17.500000000000004 512.80001831054699 441.30000305175787 1077.2500000000002 14.500000000000002 730.79998779296886 615.04998779296886 1.0000000180025095e-35 64.450000762939467 13.500000000000002 314.94999694824224 365.85000610351568 798.34997558593761 37.050001144409187
decision_type=2 2 2 2 2 2 2 2 2 2 2 2 2 2 2 2 2 2 2 2 2
left_child=2 3 7 5 19 12 -4 14 9 16 11 -7 13 -2 15 20 18 -18 -8 -5 -1
right_child=1 -3 6 4 -6 10 8 -9 -10 -11 -12 -13 -14 -15 -16 -17 17 -19 -20 -21 -22
leaf_value=-2.5718985462188719 -0.14564132775579181 3.7793363785743717 -1.334234438771787 2.1114169275760655 0.66901906728744509 0.47231468221415646 -0.94707082621753225 -0.85663484660061917 -0.93714023604989061 1.3546059763949851 0.44726784735014946 2.0080407960074291 -0.43099801648746844 1.134505759716034 -2.6818960744142535 -1.0573212270225798 0.59515710331144789 -0.53980835878849032 -0.37636804410389496 2.7327552571892739 -2.0319441302617394
leaf_weight=20 28 20 23 20 25 23 32 22 32 23 33 28 22 25 20 28 21 25 28 20 30
leaf_count=20 28 20 23 20 25 23 32 22 32 23 33 28 22 25 20 28 21 25 28 20 30
internal_value=0 1.1715 -0.940285 0.93866 1.74783 0.607868 -0.387834 -1.78738 -0.252634 -0.0828337 0.974384 1.31546 0.19737 0.458202 -1.99632 -1.82053 -0.394731 -0.021672 -0.680743 2.42209 -2.24793
internal_weight=0 244 304 224 65 159 184 120 161 129 84 51 75 53 98 78 106 46 60 40 50
internal_count=548 244 304 224 65 159 184 120 161 129 84 51 75 53 98 78 106 46 60 40 50
is_linear=0
shrinkage=0.1


Tree=20
num_leaves=21
num_cat=0
split_feature=0 0 0 5 2 0 5 5 0 6 0 6 0 5 6 1 0 6 0 0
split_gain=49329.5 12821.5 10491.4 5274.57 3207.35 6747.25 3075.46 7395.52 3468.59 3150.9 5026.2 2300.87 2127.73 1730.75 1332.76 1566.5 1163.04 446.926 215.056 190.319
threshold=544.20001220703136 1211.299987792969 111.4499969482422 4.5000000000000009 1.0000000180025095e-35 254.80000305175784 2.5000000000000004 3.5000000000000004 798.34997558593761 24.500000000000004 646.65002441406261 19.500000000000004 964.00000000000011 1.5000000000000002 18.500000000000004 1.0000000180025095e-35 373.75000000000006 13.500000000000002 408.19999694824224 52.799999237060554
decision_type=2 2 2 2 2 2 2 2 2 2 2 2 2 2 2 2 2 2 2 2
left_child=2 3 13 6 -4 -6 9 8 -8 10 -2 -5 -9 17 15 16 -7 19 -18 -1
right_child=1 -3 4 11 5 14 7 12 -10 -11 -12 -13 -14 -15 -16 -17 18 -19 -20 -21
leaf_value=-2.0381967793340272 -0.085661643961580797 3.2463108187136442 0.58683513259887699 1.0185550537976353 -1.9308738442137838 -1.3652708303360712 0.073281765580177308 0.090663305195895105 -1.7668273971194315 1.9498871117830276 1.652433488411563 2.449018482539965 1.3264149659558349 -1.1751032658985683 0.30121200254985264 0.10194914992898703 -0.71769142037346256 -1.6715657642909461 -0.29435569005353107 -2.4599869883060457
leaf_weight=23 41 23 25 22 32 21 20 22 21 24 28 23 38 35 28 32 21 21 28 20
leaf_count=23 41 23 25 22 32 21 20 22 21 24 28 23 38 35 28 32 21 21 28 20
internal_value=0 0.991278 -0.908093 0.774266 -0.467406 -0.630098 0.54801 0.165947 -0.869213 0.962939 0.619652 1.74968 0.873306 -1.7405 -0.309907 -0.477665 -0.742631 -2.04971 -0.475785 -2.23438
internal_weight=0 262 286 239 187 162 194 101 41 93 69 45 60 99 130 102 70 64 49 43
internal_count=548 262 286 239 187 162 194 101 41 93 69 45 60 99 130 102 70 64 49 43
is_linear=0
shrinkage=0.1


Tree=21
num_leaves=20
num_cat=0
split_feature=0 6 0 1 6 6 0 2 0 6 0 0 0 5 0 0 6 6 6
split_gain=39956.9 10855.9 8886.08 8582.55 7916.16 2973.25 2661.68 1901.77 1361.97 1333.26 2035.13 3110.42 2038.39 1303.93 1791.56 865.619 730.671 513.872 343.858
threshold=544.20001220703136 49.500000000000007 86.050003051757827 1.0000000180025095e-35 11.500000000000002 15.500000000000002 239.59999847412112 1.0000000180025095e-35 979.20001220703136 8.5000000000000018 749.64999389648449 1077.2500000000002 939.89999389648449 1.5000000000000002 399.50000000000006 32.45000076293946 14.500000000000002 20.500000000000004 18.500000000000004
decision_type=2 2 2 2 2 2 2 2 2 2 2 2 2 2 2 2 2 2 2
left_child=2 3 15 9 -5 6 7 -4 -6 -2 18 12 -12 14 -8 -1 -17 -7 -11
right_child=1 -3 5 4 8 17 13 -9 -10 10 11 -13 -14 -15 -16 16 -18 -19 -20
leaf_value=-2.294828381538391 -0.33422682927205016 2.9671421610790754 -0.66692028550001292 0.075504750864846371 1.927433142066002 -0.16699528869379451 -0.60797420721501116 -1.8651723804297271 3.044783843755722 -0.25125320813348218 0.68773735940456393 0.045252266996785216 1.9390258871990704 -0.90104534345514642 0.44816859672809467 -1.7893994337634038 -1.0426618623733521 0.43923896098959037 0.24187459235007946
leaf_weight=20 26 23 26 21 24 27 36 27 20 31 30 38 23 34 29 38 20 29 26
leaf_count=20 26 23 26 21 24 27 36 27 20 31 30 38 23 34 29 38 20 29 26
internal_value=0 0.89215 -0.817284 0.692464 1.67292 -0.475944 -0.70543 -1.27735 2.43532 0.326203 0.442224 0.735707 1.23075 -0.39925 -0.136772 -1.72753 -1.5319 0.146947 -0.0263177
internal_weight=0 262 286 239 65 208 152 53 44 174 148 91 53 99 65 78 58 56 57
internal_count=548 262 286 239 65 208 152 53 44 174 148 91 53 99 65 78 58 56 57
is_linear=0
shrinkage=0.1


Tree=22
num_leaves=22
num_cat=0
split_feature=0 0 0 1 6 0 0 2 0 6 6 0 0 6 1 0 0 6 6 0 6
split_gain=32365.1 10289.7 7197.73 3815.89 4510.65 2868.89 2778.98 2607.83 6855.21 2319.58 2007.92 1621.94 2243.1 900.796 1244.85 877.616 701.151 591.843 368.816 237.237 0.44121
threshold=544.20001220703136 1211.299987792969 86.050003051757827 1.0000000180025095e-35 11.500000000000002 912.29998779296886 1047.5000000000002 1.0000000180025095e-35 254.80000305175784 11.500000000000002 22.500000000000004 730.79998779296886 646.65002441406261 18.500000000000004 1.0000000180025095e-35 373.75000000000006 32.45000076293946 14.500000000000002 18.500000000000004 424.05000305175787 18.500000000000004
decision_type=2 2 2 2 2 2 2 2 2 2 2 2 2 2 2 2 2 2 2 2 2
left_child=2 3 16 5 -5 11 -7 9 -9 -4 -8 12 -2 14 15 -10 -1 -18 -6 -17 -13
right_child=1 -3 7 4 18 6 10 8 13 -11 -12 20 -14 -15 -16 19 17 -19 -20 -21 -22
leaf_value=-2.0653454923629759 -0.094560129642486571 2.8230977483417679 -0.46419831275939938 0.067954274018605557 1.5828471849793972 1.5616481950206142 -0.34804762710224502 -1.7826304355734273 -1.1707505362374444 1.0588182939589024 1.0190101938588281 -0.48506000280380257 1.1817305894125076 0.24665301186697827 0.1230120461434126 -0.19946148086477211 -1.6104594933359249 -0.9383956640958786 2.170011854171753 -0.64184175513007435 -0.46405500054359439
leaf_weight=20 40 23 20 21 23 31 22 38 21 20 21 20 21 28 32 27 38 20 20 22 20
leaf_count=20 40 23 20 21 23 31 22 38 21 20 21 20 21 28 32 27 38 20 20 22 20
internal_value=0 0.802935 -0.735556 0.608526 1.26926 0.366885 0.839909 -0.428349 -0.601125 0.29731 0.319585 0.0203132 0.344819 -0.255762 -0.39368 -0.629882 -1.55477 -1.37871 1.85595 -0.398081 -0.474558
internal_weight=0 262 286 239 64 175 74 208 168 40 43 101 61 130 102 70 78 58 43 49 40
internal_count=548 262 286 239 64 175 74 208 168 40 43 101 61 130 102 70 78 58 43 49 40
is_linear=0
shrinkage=0.1


Tree=23
num_leaves=19
num_cat=0
split_feature=0 6 1 0 0 2 0 6 0 0 0 5 0 6 6 0 6 0
split_gain=26223.5 12771.8 7817.81 5921.22 4606.24 3568.91 4234.44 2757.46 3123.47 2546.65 3320.21 1560.44 1221.37 1124.35 584.433 567.932 479.393 411.558
threshold=458.29998779296881 51.500000000000007 1.0000000180025095e-35 1047.5000000000002 86.050003051757827 1.0000000180025095e-35 254.80000305175784 7.5000000000000009 749.64999389648449 1077.2500000000002 964.00000000000011 2.5000000000000004 656.89999389648449 18.500000000000004 13.500000000000002 32.45000076293946 14.500000000000002 382.19999694824224
decision_type=2 2 2 2 2 2 2 2 2 2 2 2 2 2 2 2 2 2
left_child=4 2 7 11 15 -6 -7 -2 12 10 -10 -4 14 17 -9 -1 -17 -8
right_child=1 -3 3 -5 5 6 13 8 9 -11 -12 -13 -14 -15 -16 16 -18 -19
leaf_value=-1.8588109636306762 -0.93640931411222983 3.0682801747322084 1.2232296286310469 2.7790511274337768 0.3977191097027547 -1.6043673677664054 -0.27732040248811246 -0.36125908667842549 0.48740556851411476 0.0031711589172482495 2.0470174176352365 0.18881548881530763 -0.87348517236255463 0.27221785892139783 0.28326057353440454 -1.4494135524832497 -0.84455609977245327 -0.75846646094694736
leaf_weight=20 22 20 35 20 37 38 32 24 39 40 21 25 21 22 34 38 20 40
leaf_count=20 22 20 35 20 37 38 32 24 39 40 21 25 21 22 34 38 20 40
internal_value=0 0.626643 0.452861 1.28893 -0.763642 -0.470263 -0.713561 0.120097 0.249947 0.62123 1.03327 0.792224 -0.220032 -0.353448 0.0165628 -1.3993 -1.24084 -0.544624
internal_weight=0 301 281 80 247 169 132 201 179 100 60 60 79 94 58 78 58 72
internal_count=548 301 281 80 247 169 132 201 179 100 60 60 79 94 58 78 58 72
is_linear=0
shrinkage=0.1


Tree=24
num_leaves=21
num_cat=0
split_feature=0 0 0 1 6 5 5 2 5 0 0 0 6 6 0 0 0 6 0 0
split_gain=21694.7 7780.4 5551.57 2868.59 3002.12 1989.13 1820.49 2854.77 5497.71 3897.93 1593.12 4352.32 1604.84 795.695 730.327 373.611 702.956 803.177 219.486 333.671
threshold=567.85000610351574 1211.299987792969 132.85000610351565 1.0000000180025095e-35 12.500000000000002 1.5000000000000002 4.5000000000000009 1.0000000180025095e-35 3.5000000000000004 764.05001831054699 519.30001831054699 458.29998779296881 8.5000000000000018 17.500000000000004 646.65002441406261 247.20000457763675 399.50000000000006 13.500000000000002 69.649997711181655 40.349998474121101
decision_type=2 2 2 2 2 2 2 2 2 2 2 2 2 2 2 2 2 2 2 2
left_child=2 3 5 6 -5 18 7 8 -2 14 11 12 -4 -10 -9 -14 17 -17 19 -1
right_child=1 -3 10 4 -6 -7 -8 9 13 -11 -12 -13 15 -15 -16 16 -18 -19 -20 -21
leaf_value=-1.5504158542269755 -1.39621773119326 2.4527140377656274 -0.91177650111062192 0.12102825440466405 1.6279577401968148 -0.52852188921659382 1.1959534645080567 -0.19791675706704459 -0.036883937865495681 1.80543172121048 -0.8722429918520378 1.1324152713020643 0.17703711082195414 0.82555563605350002 0.55216452789306636 -0.07443192932340835 0.23886059806460427 -0.86949791709582014 -1.6184869964917501 -0.97969108939170835
leaf_weight=21 27 23 35 20 39 37 20 27 20 20 33 24 29 23 25 27 21 24 33 20
leaf_count=21 27 23 35 20 39 37 20 27 20 20 33 24 29 23 25 27 21 24 33 20
internal_value=0 0.70231 -0.563696 0.520141 1.11713 -1.12719 0.302718 0.17691 -0.277825 0.619014 -0.239615 -0.109135 -0.328233 0.424421 0.162699 -0.126014 -0.248077 -0.448581 -1.42652 -1.27201
internal_weight=0 244 304 221 59 111 162 142 70 72 193 160 136 43 52 101 72 51 74 41
internal_count=548 244 304 221 59 111 162 142 70 72 193 160 136 43 52 101 72 51 74 41
is_linear=0
shrinkage=0.1


Tree=25
num_leaves=22
num_cat=0
split_feature=0 0 0 6 6 2 0 5 6 5 2 0 0 5 0 0 6 6 0 0 0
split_gain=17823.6 6548.47 4039.36 2355.54 5349.93 2098.77 2992.99 1156.6 1030.25 1021.15 3355.43 3309.27 1059.92 870.588 2033.77 533.089 423.545 393.236 330.926 270.274 176.589
threshold=544.20001220703136 1211.299987792969 111.4499969482422 24.500000000000004 38.500000000000007 1.0000000180025095e-35 296.15000915527349 1.5000000000000002 18.500000000000004 3.5000000000000004 1.0000000180025095e-35 646.65002441406261 1077.2500000000002 1.5000000000000002 449.80000305175787 964.00000000000011 10.500000000000002 13.500000000000002 69.649997711181655 40.349998474121101 798.34997558593761
decision_type=2 2 2 2 2 2 2 2 2 2 2 2 2 2 2 2 2 2 2 2 2
left_child=2 3 7 9 20 -4 16 18 13 10 -2 17 15 14 -8 -11 -7 -12 19 -1 -5
right_child=1 -3 5 4 -6 6 8 -9 -10 12 11 -13 -14 -15 -16 -17 -18 -19 -20 -21 -22
leaf_value=-1.3953742833364577 -1.0822787091845558 2.2074427261300711 0.58039691925048831 1.4495444791657586 -0.20394901895523071 -0.78248953123887377 -0.48759197253319952 -0.60015989908150269 0.45359838803609209 0.50812366786210439 0.1234784726743345 1.1921037301934998 0.044824317208042856 -0.67418039015361242 0.77011217951774602 1.2049952061403366 -1.3830116349717845 -0.42691912698745726 -1.6187259912490846 -0.88172198593616491 1.8647361125051978
leaf_weight=21 21 23 25 21 25 24 36 35 24 23 27 29 27 35 20 21 23 25 23 20 20
leaf_count=21 21 23 25 21 25 24 36 35 24 23 27 29 27 35 20 21 23 25 23 20 20
internal_value=0 0.595854 -0.545852 0.440764 0.949037 -0.272407 -0.404013 -1.06236 -0.129226 0.246856 0.0441578 0.336197 0.538056 -0.282938 -0.0384119 0.840721 -1.07636 -0.141136 -1.31512 -1.14481 1.65208
internal_weight=0 262 286 239 66 187 162 99 115 173 102 81 71 91 56 44 47 52 64 41 41
internal_count=548 262 286 239 66 187 162 99 115 173 102 81 71 91 56 44 47 52 64 41 41
is_linear=0
shrinkage=0.1


Tree=26
num_leaves=21
num_cat=0
split_feature=5 0 0 4 0 5 0 0 0 6 0 0 0 0 2 0 0 0 6 5
split_gain=15026.6 7887.15 6354.25 4485.01 3243.59 2218.76 4403.28 2064.48 3248.35 1601.2 2499.96 1380.75 1268.39 925.392 838.282 518.44 816.836 513.361 287.008 275.77
threshold=3.5000000000000004 1173.2000122070315 228.34999847412112 1.0000000180025095e-35 567.85000610351574 1.5000000000000002 67.549999237060561 512.80001831054699 458.29998779296881 24.500000000000004 646.65002441406261 1025.799987792969 864.90002441406261 311.25000000000006 1.0000000180025095e-35 404.40000915527349 382.19999694824224 94.950000762939467 12.500000000000002 4.5000000000000009
decision_type=2 2 2 2 2 2 2 2 2 2 2 2 2 2 2 2 2 2 2 2
left_child=2 11 5 4 7 14 -7 8 13 10 -6 12 -2 -4 17 16 -15 18 -1 -13
right_child=1 -3 3 -5 9 6 -8 -9 -10 -11 -12 19 -14 15 -16 -17 -18 -19 -20 -21
leaf_value=-1.2960446610532959 0.69513318204879759 2.4901277425664445 0.29152380398785077 -1.03006998816052 -0.15996434688568117 -1.1255184605717659 0.8213678921972003 -0.85732593920923061 1.1885831980478196 1.3255793124437334 1.0728933907788376 0.69755482503346045 -0.31219703578948976 -0.16496499939398335 -1.5785732727784376 -0.049144024451573697 -1.0368929776146876 -0.51358393213965681 -0.80362969994544986 1.1987720924875009
leaf_weight=29 25 27 30 37 38 26 21 31 21 24 29 21 25 22 26 30 21 22 20 23
leaf_count=29 25 27 30 37 38 26 21 31 21 24 29 21 25 22 26 30 21 22 20 23
internal_value=0 0.983696 -0.278752 -0.00357904 0.150812 -0.819544 -0.255633 -0.127416 0.0550618 0.624716 0.373661 0.550998 0.191468 -0.176045 -1.09278 -0.368196 -0.59079 -0.914884 -1.09506 0.959555
internal_weight=0 121 427 283 246 144 47 155 124 91 67 94 50 103 97 73 43 71 49 44
internal_count=548 121 427 283 246 144 47 155 124 91 67 94 50 103 97 73 43 71 49 44
is_linear=0
shrinkage=0.1


Tree=27
num_leaves=22
num_cat=0
split_feature=6 0 6 0 5 6 5 0 6 0 0 0 0 6 0 2 6 0 0 6 6
split_gain=13264.9 8553.26 4347.98 3042.95 2220.37 3728.21 1448.12 3019.25 974.985 1103.85 1908.31 2594.89 1185.48 1001.42 733.347 710.251 481.796 415.822 347.95 232.477 131.887
threshold=51.500000000000007 228.34999847412112 6.5000000000000009 983.20001220703136 4.5000000000000009 18.500000000000004 1.5000000000000002 67.549999237060561 33.500000000000007 404.40000915527349 512.80001831054699 567.85000610351574 382.19999694824224 23.500000000000004 631.75000000000011 1.0000000180025095e-35 15.500000000000002 94.950000762939467 311.25000000000006 12.500000000000002 10.500000000000002
decision_type=2 2 2 2 2 2 2 2 2 2 2 2 2 2 2 2 2 2 2 2 2
left_child=1 6 -3 8 5 -5 15 -8 9 12 -11 -12 18 14 -13 17 20 19 -4 -1 -16
right_child=-2 2 3 4 -6 -7 7 -9 -10 10 11 13 -14 -15 16 -17 -18 -19 -20 -21 -22
leaf_value=-1.1664401897068684 2.4057103503834121 -1.0552435902612549 0.36797970578074457 1.2127656210351874 1.4548440571626029 -0.4490515212217967 -1.0129666056340703 0.62131529688835152 -0.56172772971066565 0.86445277258753783 -0.76250080281290522 -0.25631841113490444 -0.86988428592681888 0.85444778537750254 0.70520048195665541 -1.4431822242736816 -0.033134324135987651 -0.46222556504336271 -0.22189309686422348 -0.72326671332120895 0.35038813769817356
leaf_weight=29 22 28 20 27 30 27 26 20 22 40 29 31 20 25 22 25 23 22 20 20 20
leaf_count=29 22 28 20 27 30 27 26 20 22 40 29 31 20 25 22 25 23 22 20 20 20
internal_value=0 -0.100619 0.144598 0.238968 0.765067 0.381857 -0.763743 -0.302409 0.0764964 0.13266 0.250742 0.0870859 -0.241266 0.290706 0.143898 -0.984798 0.334771 -0.823395 0.0730433 -0.985553 0.536242
internal_weight=0 526 384 356 84 54 142 46 272 250 190 150 60 121 96 96 65 71 40 49 42
internal_count=548 526 384 356 84 54 142 46 272 250 190 150 60 121 96 96 65 71 40 49 42
is_linear=0
shrinkage=0.1


Tree=28
num_leaves=20
num_cat=0
split_feature=6 0 6 0 1 2 0 0 0 3 0 6 0 0 0 6 6 1 0
split_gain=10744.6 6935.87 2880.29 2323.7 1827.85 1628.68 3965.01 1132.92 1037.29 998.669 472.664 1223.51 1548.43 2143.14 1170.56 679.348 648.281 922.754 263.84
threshold=51.500000000000007 296.15000915527349 6.5000000000000009 983.20001220703136 1.0000000180025095e-35 1.0000000180025095e-35 111.4499969482422 59.149999618530281 1129.2500000000002 1.0000000180025095e-35 404.40000915527349 30.500000000000004 512.80001831054699 573.40002441406261 382.19999694824224 23.500000000000004 16.500000000000004 1.0000000180025095e-35 32.45000076293946
decision_type=2 2 2 2 2 2 2 2 2 2 2 2 2 2 2 2 2 2 2
left_child=1 5 -3 10 8 6 7 18 -5 -7 14 12 -12 -14 -4 16 17 -15 -1
right_child=-2 2 3 4 -6 9 -8 -9 -10 -11 11 -13 13 15 -16 -17 -18 -19 -20
leaf_value=-1.2565198984742165 2.1651392069729893 -0.87940130132436767 0.24350711905956271 0.81137750230986505 1.4051756443977357 -0.75072056522240516 0.8005789409984243 -0.20468057533105216 -0.027343170046806337 -1.6277865105867386 0.77800750875845548 -0.57827372437431701 -0.63303105487967981 0.080153794288635255 -0.78289584636688236 0.79659674955265869 -0.20572307513606167 0.91205834150314335 -0.80571156947596645
leaf_weight=20 22 25 25 29 25 37 22 30 30 20 40 21 33 40 20 21 31 20 37
leaf_count=20 22 25 25 29 25 37 22 30 30 20 40 21 33 40 20 21 31 20 37
internal_value=0 -0.0905572 0.156024 0.233295 0.68856 -0.625312 -0.398802 -0.702094 0.384909 -1.05846 0.0809352 0.145073 0.227182 0.0752304 -0.212672 0.283915 0.165603 0.357455 -0.96389
internal_weight=0 526 360 335 84 166 109 87 59 57 251 206 185 145 45 112 91 60 57
internal_count=548 526 360 335 84 166 109 87 59 57 251 206 185 145 45 112 91 60 57
is_linear=0
shrinkage=0.1


Tree=29
num_leaves=20
num_cat=0
split_feature=5 0 0 4 0 0 0 6 6 0 0 0 0 2 0 6 3 6 0
split_gain=8770.39 6346.47 3569.99 3796.17 2368.56 1154.32 2207.55 1079.11 1018.93 1960.91 842.709 745.219 1146.72 692.637 1231.13 763.462 232.359 230.342 213.71
threshold=3.5000000000000004 1173.2000122070315 143.80000305175784 1.0000000180025095e-35 567.85000610351574 512.80001831054699 458.29998779296881 8.5000000000000018 24.500000000000004 646.65002441406261 247.20000457763675 1025.799987792969 864.90002441406261 1.0000000180025095e-35 59.149999618530281 11.500000000000002 1.0000000180025095e-35 13.500000000000002 32.45000076293946
decision_type=2 2 2 2 2 2 2 2 2 2 2 2 2 2 2 2 2 2 2
left_child=2 11 13 4 5 6 7 -4 9 -6 -9 12 -2 14 18 -16 -13 -12 -1
right_child=1 -3 3 -5 8 -7 -8 10 -10 -11 17 16 -14 -15 15 -17 -18 -19 -20
leaf_value=-1.1308678951859474 0.57814390110969549 2.1028314619152635 -0.62661380597523286 -0.98209882636328016 -0.15948757168493774 -0.66805572699635263 0.95279632863544284 0.60001806616783149 1.0724806855122249 0.9323945288000437 0.045125172887411386 0.41179045319557189 -0.37965188884735107 -1.1970842867025309 -0.60114133119583135 0.25253284553235228 0.87330504655838015 -0.31260072075658374 -0.72514041033951016
leaf_weight=20 25 27 35 37 38 31 21 20 24 29 36 20 25 21 20 22 24 36 37
leaf_count=20 25 27 35 37 38 31 21 20 24 29 36 20 25 21 20 22 24 36 37
internal_value=0 0.75152 -0.21296 -0.0321839 0.0979896 -0.113191 0.00303028 -0.154018 0.51339 0.313118 0.0257744 0.363377 0.099246 -0.675445 -0.564795 -0.153979 0.663526 -0.133738 -0.867501
internal_weight=0 121 427 307 270 179 148 127 91 67 92 94 50 120 99 42 44 72 57
internal_count=548 121 427 307 270 179 148 127 91 67 92 94 50 120 99 42 44 72 57
is_linear=0
shrinkage=0.1


Tree=30
num_leaves=21
num_cat=0
split_feature=6 0 1 0 5 0 6 6 0 0 6 5 0 0 6 5 6 5 6 3
split_gain=8254.66 4819.53 3040.49 3539.85 5314.57 1584.34 1536.74 1631.35 1265.25 4801.07 1385.08 1238.78 2051.01 643.094 1805.83 1702.34 601.031 599.386 577.99 537.379
threshold=51.500000000000007 228.34999847412112 1.0000000180025095e-35 1047.5000000000002 1.5000000000000002 544.20001220703136 7.5000000000000009 31.500000000000004 1077.2500000000002 964.00000000000011 18.500000000000004 1.5000000000000002 67.549999237060561 373.75000000000006 10.500000000000002 1.5000000000000002 14.500000000000002 1.0000000180025095e-35 10.500000000000002 1.0000000180025095e-35
decision_type=2 2 2 2 2 2 2 2 2 2 2 2 2 2 2 2 2 2 2 2
left_child=1 11 6 4 -4 -6 -3 8 9 10 13 17 -13 -8 -15 -16 -17 -1 -19 -12
right_child=-2 2 3 -5 5 -7 7 -9 -10 -11 19 12 -14 14 15 16 -18 18 -20 -21
leaf_value=-1.2143916696310044 1.8977579040960835 -0.68564753592014316 1.5005173579156399 1.763727538045496 -0.93740195701608353 0.15009415843398186 -0.65098268714818097 -0.69600108702267915 -0.48824932580192892 1.6757100012898445 0.7877294039726257 -0.73610230924991471 0.61087605565786363 0.58563019772370661 0.38870299577713019 -0.35360355079174044 -1.1288651549816133 -0.34602344245782923 -0.91290374478778336 0.16459228617529717
leaf_weight=24 22 35 25 20 21 37 22 28 30 20 25 26 20 30 20 20 20 35 37 31
leaf_count=24 22 35 25 20 21 37 22 28 30 20 25 26 20 30 20 20 20 35 37 31
internal_value=0 -0.0793739 0.104698 0.569471 0.281699 -0.243654 -0.0656634 0.0225458 0.114836 0.211073 0.0367117 -0.577146 -0.15046 -0.166322 -0.047849 -0.364589 -0.741234 -0.781601 -0.637337 0.442778
internal_weight=0 526 384 103 83 58 281 246 218 188 168 142 46 112 90 60 40 96 72 56
internal_count=548 526 384 103 83 58 281 246 218 188 168 142 46 112 90 60 40 96 72 56
is_linear=0
shrinkage=0.1


Tree=31
num_leaves=20
num_cat=0
split_feature=6 0 6 0 6 0 0 5 0 1 6 6 3 5 0 5 6 0 0
split_gain=6686.27 3903.82 2555.19 1713.89 1028.4 1541.56 2303.06 1003.41 1661.31 681.066 1178.43 713.808 1141.41 731.154 1173.12 485.503 468.172 268.545 734.478
threshold=51.500000000000007 228.34999847412112 6.5000000000000009 1140.4500122070315 34.500000000000007 1077.2500000000002 964.00000000000011 1.5000000000000002 67.549999237060561 1.0000000180025095e-35 12.500000000000002 18.500000000000004 1.0000000180025095e-35 2.5000000000000004 582.39999389648449 1.0000000180025095e-35 10.500000000000002 373.75000000000006 449.80000305175787
decision_type=2 2 2 2 2 2 2 2 2 2 2 2 2 2 2 2 2 2 2
left_child=1 7 -3 4 5 6 9 15 -9 11 -11 13 -13 14 17 -1 -17 -4 -19
right_child=-2 2 3 -5 -6 -7 -8 8 -10 10 -12 12 -14 -15 -16 16 -18 18 -20
leaf_value=-1.092952514688174 1.7079822304573928 -0.82556906675121611 -0.47700831883627437 0.80130018121317814 -0.56890777024355799 -0.70801168262958525 1.0442210127310507 -0.6624920863944751 0.54978842854499821 -0.033086053375154738 0.83930839260419221 0.78865222472410945 -0.09728608131408692 -0.6520915193991228 0.65015585706347512 -0.31142109504767829 -0.82161337717159366 0.31168470206084076 -0.39159205456574764
leaf_weight=24 22 28 23 38 22 20 29 26 20 32 30 26 33 22 21 35 37 27 33
leaf_count=24 22 28 23 38 22 20 29 26 20 32 30 26 33 22 21 35 37 27 33
internal_value=0 -0.0714365 0.0942284 0.166572 0.090724 0.139751 0.201183 -0.519432 -0.135414 0.102203 0.38904 0.00607316 0.293127 -0.128341 -0.0175478 -0.703441 -0.573603 -0.186485 -0.0751175
internal_weight=0 526 384 356 318 296 276 142 46 247 62 185 59 126 104 96 72 83 60
internal_count=548 526 384 356 318 296 276 142 46 247 62 185 59 126 104 96 72 83 60
is_linear=0
shrinkage=0.1


Tree=32
num_leaves=20
num_cat=0
split_feature=0 0 5 6 2 3 1 5 0 6 0 0 0 2 0 5 6 0 0
split_gain=5649.26 3001.79 1519.87 1399.29 1141.09 2044.29 931.797 4048.18 1576.46 1424.17 910.642 1596.17 1000.38 1787.85 2347.95 1781.88 746.489 502.328 115.282
threshold=1211.299987792969 228.34999847412112 4.5000000000000009 19.500000000000004 1.0000000180025095e-35 1.0000000180025095e-35 1.0000000180025095e-35 1.5000000000000002 554.60000610351574 30.500000000000004 404.40000915527349 512.80001831054699 577.05001831054699 1.0000000180025095e-35 686.75000000000011 3.5000000000000004 8.5000000000000018 48.699998855590827 378.05000305175787
decision_type=2 2 2 2 2 2 2 2 2 2 2 2 2 2 2 2 2 2 2
left_child=1 4 6 -4 5 16 9 -8 -9 10 18 -12 -13 15 -15 -14 -1 -18 -3
right_child=-2 2 3 -5 -6 -7 7 8 -10 -11 11 12 13 14 -16 -17 17 -19 -20
leaf_value=-0.99610996590210843 1.5339855168176735 -0.23322903564998085 0.055399859493429016 1.1709382990132207 -0.94372466901938123 0.42445535392596806 1.3585158584117891 -0.83260783465071153 0.27423797800175603 -0.69834464011770314 0.7961730582960721 -0.55357013983385905 -0.96050102956916972 -0.088556757867336286 1.2097907964999859 0.18610126872857413 -0.73738039009273049 -0.10225489843975416 -0.5295966284615653
leaf_weight=26 23 35 22 23 36 29 25 22 31 33 29 28 23 30 26 33 20 33 21
leaf_count=26 23 35 22 23 36 29 25 22 31 33 29 28 23 30 26 33 20 33 21
internal_value=0 -0.0672032 0.0798008 0.625564 -0.456151 -0.293627 0.00670748 0.309576 -0.185207 -0.0848573 0.00512082 0.120927 -0.0189449 0.114711 0.514247 -0.284825 -0.557226 -0.341925 -0.344367
internal_weight=0 525 381 45 144 108 336 78 53 258 225 169 140 112 56 56 79 53 56
internal_count=548 525 381 45 144 108 336 78 53 258 225 169 140 112 56 56 79 53 56
is_linear=0
shrinkage=0.1


Tree=33
num_leaves=23
num_cat=0
split_feature=6 6 0 5 6 1 3 6 0 0 4 0 0 0 6 0 6 5 0 0 6 6
split_gain=5331.45 3085.25 2362.41 1233.28 1332.25 978.784 3596.66 1931.64 1031.92 517.57 1149.98 735.814 752.069 1150.18 549.25 359.453 328.185 303.866 533.153 287.625 239.916 58.5307
threshold=51.500000000000007 5.5000000000000009 111.4499969482422 4.5000000000000009 19.500000000000004 1.0000000180025095e-35 1.0000000180025095e-35 25.500000000000004 449.80000305175787 939.89999389648449 1.0000000180025095e-35 646.65002441406261 415.04998779296881 373.75000000000006 11.500000000000002 35.250000000000007 14.500000000000002 1.5000000000000002 67.549999237060561 247.20000457763675 33.500000000000007 16.500000000000004
decision_type=2 2 2 2 2 2 2 2 2 2 2 2 2 2 2 2 2 2 2 2 2 2
left_child=1 -1 15 5 -5 7 8 9 -7 10 11 12 13 19 -14 -3 -11 18 -17 -4 -9 -16
right_child=-2 2 3 4 -6 6 -8 20 -10 16 -12 -13 14 -15 21 17 -18 -19 -20 -21 -22 -23
leaf_value=-0.99988232198538207 1.5251549298113043 -0.83436658953626963 0.15909360828606978 0.049859900366176262 1.1503756772388112 -0.55453465448485484 1.2912643215722508 -0.89136494221570706 0.25401409582087869 0.091573661565780645 -0.6899157102812421 0.56803980011206412 -0.68211828484421688 0.72536216024999267 0.055792281844399196 -0.18185307573188436 0.65758718677929473 -0.075511626650889729 -0.89523871123790755 -0.33577810327212015 -0.41779427468776709 -0.17760990314363015
leaf_weight=33 22 21 23 22 22 27 27 23 38 20 22 26 21 27 22 22 21 24 20 24 20 21
leaf_count=33 22 21 23 22 22 27 27 23 38 20 22 26 21 27 22 22 21 24 20 24 20 21
internal_value=0 -0.0637897 -0.00113041 0.100203 0.600118 0.0394394 0.321133 -0.0565452 -0.0818446 0.0598682 -0.0110254 0.0800453 -0.0118957 0.205206 -0.26292 -0.474017 0.381483 -0.359361 -0.521561 -0.0936068 -0.6711 -0.0581948
internal_weight=0 526 493 406 44 362 92 270 65 227 186 164 138 74 64 87 41 66 42 47 43 43
internal_count=548 526 493 406 44 362 92 270 65 227 186 164 138 74 64 87 41 66 42 47 43 43
is_linear=0
shrinkage=0.1


end of trees

feature_importances:
distance=352
pass_stations=193
transfer_times=59
is_express=30
is_superexpress=28
is_bus=8
is_airplane=4

parameters:
[boosting: gbdt]
[objective: regression]
[metric: l1]
[tree_learner: serial]
[device_type: cpu]
[data: ]
[valid: ]
[num_iterations: 10000]
[learning_rate: 0.1]
[num_leaves: 31]
[num_threads: 0]
[deterministic: 0]
[force_col_wise: 0]
[force_row_wise: 0]
[histogram_pool_size: -1]
[max_depth: -1]
[min_data_in_leaf: 20]
[min_sum_hessian_in_leaf: 0.001]
[bagging_fraction: 1]
[pos_bagging_fraction: 1]
[neg_bagging_fraction: 1]
[bagging_freq: 0]
[bagging_seed: 3]
[feature_fraction: 1]
[feature_fraction_bynode: 1]
[feature_fraction_seed: 2]
[extra_trees: 0]
[extra_seed: 6]
[early_stopping_round: 1000]
[first_metric_only: 0]
[max_delta_step: 0]
[lambda_l1: 0]
[lambda_l2: 0]
[linear_lambda: 0]
[min_gain_to_split: 0]
[drop_rate: 0.1]
[max_drop: 50]
[skip_drop: 0.5]
[xgboost_dart_mode: 0]
[uniform_drop: 0]
[drop_seed: 4]
[top_rate: 0.2]
[other_rate: 0.1]
[min_data_per_group: 100]
[max_cat_threshold: 32]
[cat_l2: 10]
[cat_smooth: 10]
[max_cat_to_onehot: 4]
[top_k: 20]
[monotone_constraints: ]
[monotone_constraints_method: basic]
[monotone_penalty: 0]
[feature_contri: ]
[forcedsplits_filename: ]
[refit_decay_rate: 0.9]
[cegb_tradeoff: 1]
[cegb_penalty_split: 0]
[cegb_penalty_feature_lazy: ]
[cegb_penalty_feature_coupled: ]
[path_smooth: 0]
[interaction_constraints: ]
[verbosity: 1]
[saved_feature_importance_type: 0]
[linear_tree: 0]
[max_bin: 255]
[max_bin_by_feature: ]
[min_data_in_bin: 3]
[bin_construct_sample_cnt: 200000]
[data_random_seed: 1]
[is_enable_sparse: 1]
[enable_bundle: 1]
[use_missing: 1]
[zero_as_missing: 0]
[feature_pre_filter: 1]
[pre_partition: 0]
[two_round: 0]
[header: 0]
[label_column: ]
[weight_column: ]
[group_column: ]
[ignore_column: ]
[categorical_feature: ]
[forcedbins_filename: ]
[precise_float_parser: 0]
[objective_seed: 5]
[num_class: 1]
[is_unbalance: 0]
[scale_pos_weight: 1]
[sigmoid: 1]
[boost_from_average: 1]
[reg_sqrt: 0]
[alpha: 0.9]
[fair_c: 1]
[poisson_max_delta_step: 0.7]
[tweedie_variance_power: 1.5]
[lambdarank_truncation_level: 30]
[lambdarank_norm: 1]
[label_gain: ]
[eval_at: ]
[multi_error_top_k: 1]
[auc_mu_weights: ]
[num_machines: 1]
[local_listen_port: 12400]
[time_out: 120]
[machine_list_filename: ]
[machines: ]
[gpu_platform_id: -1]
[gpu_device_id: -1]
[gpu_use_dp: 0]
[num_gpu: 1]

end of parameters

pandas_categorical:[]
